<?xml version="1.0"?>
<opencv_storage>
<cascade>
  <stageType>BOOST</stageType>
  <featureType>HAAR</featureType>
  <height>24</height>
  <width>24</width>
  <stageParams>
    <boostType>GAB</boostType>
    <minHitRate>9.9500000476837158e-01</minHitRate>
    <maxFalseAlarm>5.0000000000000000e-01</maxFalseAlarm>
    <weightTrimRate>9.4999998807907104e-01</weightTrimRate>
    <maxDepth>1</maxDepth>
    <maxWeakCount>100</maxWeakCount></stageParams>
  <featureParams>
    <maxCatCount>0</maxCatCount>
    <featSize>1</featSize>
    <mode>BASIC</mode></featureParams>
  <stageNum>11</stageNum>
  <stages>
    <!-- stage 0 -->
    <_>
      <maxWeakCount>3</maxWeakCount>
      <stageThreshold>-1.3010489940643311e+00</stageThreshold>
      <weakClassifiers>
        <_>
          <internalNodes>
            0 -1 1 -5.0848054885864258e-01</internalNodes>
          <leafValues>
            7.4358975887298584e-01 -9.8179978132247925e-01</leafValues></_>
        <_>
          <internalNodes>
            0 -1 0 -2.5598883628845215e-01</internalNodes>
          <leafValues>
            7.6017141342163086e-01 -9.0785104036331177e-01</leafValues></_>
        <_>
          <internalNodes>
            0 -1 16 -2.8367203474044800e-01</internalNodes>
          <leafValues>
            5.8860188722610474e-01 -1.</leafValues></_></weakClassifiers></_>
    <!-- stage 1 -->
    <_>
      <maxWeakCount>4</maxWeakCount>
      <stageThreshold>-2.1288414001464844e+00</stageThreshold>
      <weakClassifiers>
        <_>
          <internalNodes>
            0 -1 4 8.5445746779441833e-02</internalNodes>
          <leafValues>
            -9.0900099277496338e-01 4.7761192917823792e-01</leafValues></_>
        <_>
          <internalNodes>
            0 -1 21 1.5474553219974041e-03</internalNodes>
          <leafValues>
            -9.8667055368423462e-01 3.9341604709625244e-01</leafValues></_>
        <_>
          <internalNodes>
            0 -1 28 -1.3036705553531647e-02</internalNodes>
          <leafValues>
            7.4889385700225830e-01 -7.7120429277420044e-01</leafValues></_>
        <_>
          <internalNodes>
            0 -1 5 -2.0645758137106895e-02</internalNodes>
          <leafValues>
            5.3803437948226929e-01 -1.</leafValues></_></weakClassifiers></_>
    <!-- stage 2 -->
    <_>
      <maxWeakCount>2</maxWeakCount>
      <stageThreshold>-4.1599270701408386e-01</stageThreshold>
      <weakClassifiers>
        <_>
          <internalNodes>
            0 -1 15 2.6802465319633484e-02</internalNodes>
          <leafValues>
            -8.6129337549209595e-01 8.2051283121109009e-01</leafValues></_>
        <_>
          <internalNodes>
            0 -1 3 7.9380972310900688e-03</internalNodes>
          <leafValues>
            -9.9753367900848389e-01 4.4530063867568970e-01</leafValues></_></weakClassifiers></_>
    <!-- stage 3 -->
    <_>
      <maxWeakCount>3</maxWeakCount>
      <stageThreshold>-1.6845155954360962e+00</stageThreshold>
      <weakClassifiers>
        <_>
          <internalNodes>
            0 -1 27 6.7792847752571106e-02</internalNodes>
          <leafValues>
            -9.8028475046157837e-01 1.7241379618644714e-01</leafValues></_>
        <_>
          <internalNodes>
            0 -1 19 5.9009149670600891e-02</internalNodes>
          <leafValues>
            -9.8462092876434326e-01 1.0801046341657639e-01</leafValues></_>
        <_>
          <internalNodes>
            0 -1 12 -2.3102015256881714e-02</internalNodes>
          <leafValues>
            2.8039014339447021e-01 -1.</leafValues></_></weakClassifiers></_>
    <!-- stage 4 -->
    <_>
      <maxWeakCount>5</maxWeakCount>
      <stageThreshold>-1.9085645675659180e+00</stageThreshold>
      <weakClassifiers>
        <_>
          <internalNodes>
            0 -1 24 2.4545587599277496e-02</internalNodes>
          <leafValues>
            -9.2910850048065186e-01 4.6728972345590591e-02</leafValues></_>
        <_>
          <internalNodes>
            0 -1 7 -6.2893521785736084e-01</internalNodes>
          <leafValues>
            5.4475808143615723e-01 -8.0408418178558350e-01</leafValues></_>
        <_>
          <internalNodes>
            0 -1 29 1.5495318919420242e-02</internalNodes>
          <leafValues>
            -9.4033354520797729e-01 4.0063002705574036e-01</leafValues></_>
        <_>
          <internalNodes>
            0 -1 2 -5.1218965090811253e-03</internalNodes>
          <leafValues>
            -1. 3.4564274549484253e-01</leafValues></_>
        <_>
          <internalNodes>
            0 -1 13 -3.0271285140770487e-05</internalNodes>
          <leafValues>
            4.1931888461112976e-01 -9.7736304998397827e-01</leafValues></_></weakClassifiers></_>
    <!-- stage 5 -->
    <_>
      <maxWeakCount>1</maxWeakCount>
      <stageThreshold>-6.1488673090934753e-02</stageThreshold>
      <weakClassifiers>
        <_>
          <internalNodes>
            0 -1 13 -1.2852609506808221e-04</internalNodes>
          <leafValues>
            -1. -6.1488673090934753e-02</leafValues></_></weakClassifiers></_>
    <!-- stage 6 -->
    <_>
      <maxWeakCount>2</maxWeakCount>
      <stageThreshold>-5.4659682512283325e-01</stageThreshold>
      <weakClassifiers>
        <_>
          <internalNodes>
            0 -1 25 -5.9299706481397152e-03</internalNodes>
          <leafValues>
            4.7368422150611877e-01 -8.5714286565780640e-01</leafValues></_>
        <_>
          <internalNodes>
            0 -1 13 -3.1030685931909829e-05</internalNodes>
          <leafValues>
            3.1054604053497314e-01 -9.9632573127746582e-01</leafValues></_></weakClassifiers></_>
    <!-- stage 7 -->
    <_>
      <maxWeakCount>3</maxWeakCount>
      <stageThreshold>-1.5110647678375244e+00</stageThreshold>
      <weakClassifiers>
        <_>
          <internalNodes>
            0 -1 11 -6.4631767570972443e-02</internalNodes>
          <leafValues>
            2.4418604373931885e-01 -9.2189103364944458e-01</leafValues></_>
        <_>
          <internalNodes>
            0 -1 9 -4.0718249510973692e-04</internalNodes>
          <leafValues>
            2.9776638746261597e-01 -9.0874862670898438e-01</leafValues></_>
        <_>
          <internalNodes>
            0 -1 26 2.4183096829801798e-03</internalNodes>
          <leafValues>
            -8.8694006204605103e-01 4.3169850111007690e-01</leafValues></_></weakClassifiers></_>
    <!-- stage 8 -->
    <_>
      <maxWeakCount>3</maxWeakCount>
      <stageThreshold>-1.2612619400024414e+00</stageThreshold>
      <weakClassifiers>
        <_>
          <internalNodes>
            0 -1 17 -1.4477614313364029e-02</internalNodes>
          <leafValues>
            5.1807230710983276e-01 -8.4557437896728516e-01</leafValues></_>
        <_>
          <internalNodes>
            0 -1 23 2.2662086121272296e-04</internalNodes>
          <leafValues>
            -8.1378364562988281e-01 4.6675902605056763e-01</leafValues></_>
        <_>
          <internalNodes>
            0 -1 30 -2.8533971999422647e-05</internalNodes>
          <leafValues>
            4.0389433503150940e-01 -8.8244658708572388e-01</leafValues></_></weakClassifiers></_>
    <!-- stage 9 -->
    <_>
      <maxWeakCount>4</maxWeakCount>
      <stageThreshold>-2.2194094657897949e+00</stageThreshold>
      <weakClassifiers>
        <_>
          <internalNodes>
            0 -1 20 -5.6356126442551613e-03</internalNodes>
          <leafValues>
            4.0740740299224854e-01 -8.6692380905151367e-01</leafValues></_>
        <_>
          <internalNodes>
            0 -1 6 -2.7629569172859192e-02</internalNodes>
          <leafValues>
            2.1412922441959381e-01 -9.5311439037322998e-01</leafValues></_>
        <_>
          <internalNodes>
            0 -1 10 -2.5072481483221054e-02</internalNodes>
          <leafValues>
            3.9118307828903198e-01 -7.7802115678787231e-01</leafValues></_>
        <_>
          <internalNodes>
            0 -1 8 -3.0801402317592874e-05</internalNodes>
          <leafValues>
            3.7864983081817627e-01 -9.4199335575103760e-01</leafValues></_></weakClassifiers></_>
    <!-- stage 10 -->
    <_>
      <maxWeakCount>3</maxWeakCount>
      <stageThreshold>-1.4763650894165039e+00</stageThreshold>
      <weakClassifiers>
        <_>
          <internalNodes>
            0 -1 18 -1.0018807835876942e-02</internalNodes>
          <leafValues>
            1.1956521868705750e-01 -9.1259104013442993e-01</leafValues></_>
        <_>
          <internalNodes>
            0 -1 14 1.3659378513693810e-02</internalNodes>
          <leafValues>
            -6.8669539690017700e-01 6.3893759250640869e-01</leafValues></_>
        <_>
          <internalNodes>
            0 -1 22 2.9587559401988983e-04</internalNodes>
          <leafValues>
            -9.0923500061035156e-01 4.4568139314651489e-01</leafValues></_></weakClassifiers></_></stages>
  <features>
    <_>
      <rects>
        <_>
          0 0 11 18 -1.</_>
        <_>
          0 6 11 6 3.</_></rects>
      <tilted>0</tilted></_>
    <_>
      <rects>
        <_>
          0 0 24 21 -1.</_>
        <_>
          0 7 24 7 3.</_></rects>
      <tilted>0</tilted></_>
    <_>
      <rects>
        <_>
          0 6 5 6 -1.</_>
        <_>
          0 9 5 3 2.</_></rects>
      <tilted>0</tilted></_>
    <_>
      <rects>
        <_>
          0 10 18 2 -1.</_>
        <_>
          9 10 9 2 2.</_></rects>
      <tilted>0</tilted></_>
    <_>
      <rects>
        <_>
          0 12 7 8 -1.</_>
        <_>
          0 16 7 4 2.</_></rects>
      <tilted>0</tilted></_>
    <_>
      <rects>
        <_>
          0 19 18 4 -1.</_>
        <_>
          9 19 9 4 2.</_></rects>
      <tilted>0</tilted></_>
    <_>
      <rects>
        <_>
          1 0 20 9 -1.</_>
        <_>
          1 3 20 3 3.</_></rects>
      <tilted>0</tilted></_>
    <_>
      <rects>
        <_>
          1 0 23 21 -1.</_>
        <_>
          1 7 23 7 3.</_></rects>
      <tilted>0</tilted></_>
    <_>
      <rects>
        <_>
          1 8 1 2 -1.</_>
        <_>
          1 9 1 1 2.</_></rects>
      <tilted>0</tilted></_>
    <_>
      <rects>
        <_>
          1 8 2 6 -1.</_>
        <_>
          1 11 2 3 2.</_></rects>
      <tilted>0</tilted></_>
    <_>
      <rects>
        <_>
          2 16 21 4 -1.</_>
        <_>
          9 16 7 4 3.</_></rects>
      <tilted>0</tilted></_>
    <_>
      <rects>
        <_>
          4 15 15 7 -1.</_>
        <_>
          9 15 5 7 3.</_></rects>
      <tilted>0</tilted></_>
    <_>
      <rects>
        <_>
          5 3 18 15 -1.</_>
        <_>
          14 3 9 15 2.</_></rects>
      <tilted>0</tilted></_>
    <_>
      <rects>
        <_>
          5 9 1 2 -1.</_>
        <_>
          5 10 1 1 2.</_></rects>
      <tilted>0</tilted></_>
    <_>
      <rects>
        <_>
          5 16 9 5 -1.</_>
        <_>
          8 16 3 5 3.</_></rects>
      <tilted>0</tilted></_>
    <_>
      <rects>
        <_>
          6 0 9 2 -1.</_>
        <_>
          9 0 3 2 3.</_></rects>
      <tilted>0</tilted></_>
    <_>
      <rects>
        <_>
          7 1 16 21 -1.</_>
        <_>
          7 8 16 7 3.</_></rects>
      <tilted>0</tilted></_>
    <_>
      <rects>
        <_>
          7 16 6 5 -1.</_>
        <_>
          9 16 2 5 3.</_></rects>
      <tilted>0</tilted></_>
    <_>
      <rects>
        <_>
          8 15 6 9 -1.</_>
        <_>
          10 15 2 9 3.</_></rects>
      <tilted>0</tilted></_>
    <_>
      <rects>
        <_>
          11 13 11 8 -1.</_>
        <_>
          11 17 11 4 2.</_></rects>
      <tilted>0</tilted></_>
    <_>
      <rects>
        <_>
          12 0 6 1 -1.</_>
        <_>
          14 0 2 1 3.</_></rects>
      <tilted>0</tilted></_>
    <_>
      <rects>
        <_>
          12 5 10 9 -1.</_>
        <_>
          12 8 10 3 3.</_></rects>
      <tilted>0</tilted></_>
    <_>
      <rects>
        <_>
          12 5 12 4 -1.</_>
        <_>
          12 7 12 2 2.</_></rects>
      <tilted>0</tilted></_>
    <_>
      <rects>
        <_>
          12 12 2 1 -1.</_>
        <_>
          13 12 1 1 2.</_></rects>
      <tilted>0</tilted></_>
    <_>
      <rects>
        <_>
          12 15 12 6 -1.</_>
        <_>
          16 15 4 6 3.</_></rects>
      <tilted>0</tilted></_>
    <_>
      <rects>
        <_>
          14 0 6 1 -1.</_>
        <_>
          16 0 2 1 3.</_></rects>
      <tilted>0</tilted></_>
    <_>
      <rects>
        <_>
          15 13 6 6 -1.</_>
        <_>
          17 13 2 6 3.</_></rects>
      <tilted>0</tilted></_>
    <_>
      <rects>
        <_>
          20 10 4 14 -1.</_>
        <_>
          20 17 4 7 2.</_></rects>
      <tilted>0</tilted></_>
    <_>
      <rects>
        <_>
          21 0 3 4 -1.</_>
        <_>
          21 2 3 2 2.</_></rects>
      <tilted>0</tilted></_>
    <_>
      <rects>
        <_>
          21 10 1 14 -1.</_>
        <_>
          21 17 1 7 2.</_></rects>
      <tilted>0</tilted></_>
    <_>
      <rects>
        <_>
          23 13 1 2 -1.</_>
        <_>
          23 14 1 1 2.</_></rects>
      <tilted>0</tilted></_></features></cascade>
</opencv_storage>
