<?xml version="1.0"?>
<opencv_storage>
<stage4>
  <maxWeakCount>5</maxWeakCount>
  <stageThreshold>-1.9085645675659180e+00</stageThreshold>
  <weakClassifiers>
    <_>
      <internalNodes>
        0 -1 127195 2.4545587599277496e-02</internalNodes>
      <leafValues>
        -9.2910850048065186e-01 4.6728972345590591e-02</leafValues></_>
    <_>
      <internalNodes>
        0 -1 14409 -6.2893521785736084e-01</internalNodes>
      <leafValues>
        5.4475808143615723e-01 -8.0408418178558350e-01</leafValues></_>
    <_>
      <internalNodes>
        0 -1 160717 1.5495318919420242e-02</internalNodes>
      <leafValues>
        -9.4033354520797729e-01 4.0063002705574036e-01</leafValues></_>
    <_>
      <internalNodes>
        0 -1 6083 -5.1218965090811253e-03</internalNodes>
      <leafValues>
        -1. 3.4564274549484253e-01</leafValues></_>
    <_>
      <internalNodes>
        0 -1 66684 -3.0271285140770487e-05</internalNodes>
      <leafValues>
        4.1931888461112976e-01 -9.7736304998397827e-01</leafValues></_></weakClassifiers></stage4>
</opencv_storage>
